FANN_FLO_2.1
num_layers=3
learning_rate=0.700000
connection_rate=1.000000
network_type=0
learning_momentum=0.000000
training_algorithm=2
train_error_function=1
train_stop_function=0
cascade_output_change_fraction=0.010000
quickprop_decay=-0.000100
quickprop_mu=1.750000
rprop_increase_factor=1.200000
rprop_decrease_factor=0.500000
rprop_delta_min=0.000000
rprop_delta_max=50.000000
rprop_delta_zero=0.100000
cascade_output_stagnation_epochs=12
cascade_candidate_change_fraction=0.010000
cascade_candidate_stagnation_epochs=12
cascade_max_out_epochs=150
cascade_min_out_epochs=50
cascade_max_cand_epochs=150
cascade_min_cand_epochs=50
cascade_num_candidate_groups=2
bit_fail_limit=3.49999999999999977796e-01
cascade_candidate_limit=1.00000000000000000000e+03
cascade_weight_multiplier=4.00000000000000022204e-01
cascade_activation_functions_count=10
cascade_activation_functions=3 5 7 8 10 11 14 15 16 17 
cascade_activation_steepnesses_count=4
cascade_activation_steepnesses=2.50000000000000000000e-01 5.00000000000000000000e-01 7.50000000000000000000e-01 1.00000000000000000000e+00 
layer_sizes=3 9 3 
scale_included=0
neurons (num_inputs, activation_function, activation_steepness)=(0, 0, 0.00000000000000000000e+00) (0, 0, 0.00000000000000000000e+00) (0, 0, 0.00000000000000000000e+00) (3, 5, 5.00000000000000000000e-01) (3, 5, 5.00000000000000000000e-01) (3, 5, 5.00000000000000000000e-01) (3, 5, 5.00000000000000000000e-01) (3, 5, 5.00000000000000000000e-01) (3, 5, 5.00000000000000000000e-01) (3, 5, 5.00000000000000000000e-01) (3, 5, 5.00000000000000000000e-01) (0, 5, 0.00000000000000000000e+00) (9, 4, 5.00000000000000000000e-01) (9, 4, 5.00000000000000000000e-01) (0, 0, 0.00000000000000000000e+00) 
connections (connected_to_neuron, weight)=(0, -6.94357871678358851142e+00) (1, 2.92336739093014053026e+00) (2, 1.42874685646584509424e-01) (0, 2.33053874971280317041e+00) (1, -1.50089955199195212998e-01) (2, -1.02933410979306055877e-02) (0, 4.72847624926304810344e+00) (1, 6.00599988362896919369e+00) (2, -1.08889439264594178880e+00) (0, -5.91905405943135853875e+00) (1, 1.13084131309926263498e+01) (2, 9.81873934376442769612e-01) (0, 5.35454573539514289138e+00) (1, 5.91090957785772186384e+00) (2, -1.10577915171443086351e+00) (0, -2.07857148462274299305e+00) (1, -1.38465738483334488418e-01) (2, 2.93824715867381347500e-01) (0, 5.68430323650456958973e+00) (1, -1.20219456333361609524e+01) (2, -7.87407914500276251424e-01) (0, -8.63138173774876626965e+00) (1, 4.35383847592779016367e+00) (2, -1.02950546492545105814e-01) (3, 1.86695290468581021059e+00) (4, -6.19518547981480871556e-01) (5, 7.46490022484855408891e+00) (6, -3.37439012990603881548e+00) (7, 3.27982072680902181361e+00) (8, 8.15878626132063367038e+00) (9, 2.49999119526159940818e+00) (10, 1.54648974880821787892e+00) (11, -1.00471919674222864849e-01) (3, 3.04763090428548633071e+00) (4, -3.29377276262862228595e-01) (5, 3.93006906828074065174e+00) (6, -2.21447784940380465457e+00) (7, 4.01486063918261137928e+00) (8, 4.61597808823122779387e+00) (9, 3.39026044919823199564e+00) (10, 1.11148303930092984260e+00) (11, 1.48120130939365324263e-01) 
