FANN_FLO_2.1
num_layers=3
learning_rate=0.700000
connection_rate=1.000000
network_type=0
learning_momentum=0.000000
training_algorithm=2
train_error_function=1
train_stop_function=0
cascade_output_change_fraction=0.010000
quickprop_decay=-0.000100
quickprop_mu=1.750000
rprop_increase_factor=1.200000
rprop_decrease_factor=0.500000
rprop_delta_min=0.000000
rprop_delta_max=50.000000
rprop_delta_zero=0.100000
cascade_output_stagnation_epochs=12
cascade_candidate_change_fraction=0.010000
cascade_candidate_stagnation_epochs=12
cascade_max_out_epochs=150
cascade_min_out_epochs=50
cascade_max_cand_epochs=150
cascade_min_cand_epochs=50
cascade_num_candidate_groups=2
bit_fail_limit=3.49999999999999977796e-01
cascade_candidate_limit=1.00000000000000000000e+03
cascade_weight_multiplier=4.00000000000000022204e-01
cascade_activation_functions_count=10
cascade_activation_functions=3 5 7 8 10 11 14 15 16 17 
cascade_activation_steepnesses_count=4
cascade_activation_steepnesses=2.50000000000000000000e-01 5.00000000000000000000e-01 7.50000000000000000000e-01 1.00000000000000000000e+00 
layer_sizes=3 9 3 
scale_included=0
neurons (num_inputs, activation_function, activation_steepness)=(0, 0, 0.00000000000000000000e+00) (0, 0, 0.00000000000000000000e+00) (0, 0, 0.00000000000000000000e+00) (3, 5, 5.00000000000000000000e-01) (3, 5, 5.00000000000000000000e-01) (3, 5, 5.00000000000000000000e-01) (3, 5, 5.00000000000000000000e-01) (3, 5, 5.00000000000000000000e-01) (3, 5, 5.00000000000000000000e-01) (3, 5, 5.00000000000000000000e-01) (3, 5, 5.00000000000000000000e-01) (0, 5, 0.00000000000000000000e+00) (9, 4, 5.00000000000000000000e-01) (9, 4, 5.00000000000000000000e-01) (0, 0, 0.00000000000000000000e+00) 
connections (connected_to_neuron, weight)=(0, 2.38345779558138959331e+00) (1, -7.81604114366654734170e+00) (2, 2.06471196677887214310e-01) (0, 4.32070077504974170424e-01) (1, 1.59098290881570281208e+00) (2, 5.00488886002735736125e-02) (0, 6.37509145641973029583e-01) (1, 6.42245955328972328857e-01) (2, 4.67943182928561279138e-03) (0, 3.85240185339167096057e-01) (1, 2.06114559599961877367e+00) (2, 2.94549823391235254810e-03) (0, -1.62404757228873073416e+01) (1, 4.29845646454003560422e+00) (2, 2.51876916933876759952e-01) (0, -2.12821145298871838847e+00) (1, -2.67729384937545611400e-01) (2, 3.02823258666858885491e-01) (0, 4.21220555416558006812e+00) (1, 4.24192161576034987291e+00) (2, -1.97193820807980702003e-01) (0, 5.22384400251655645064e+00) (1, 7.55846469396601428059e+00) (2, -1.58220608935622997215e+00) (3, 5.07082846786096475000e+00) (4, -2.43982938904178148221e+00) (5, -2.43090288343714988617e-02) (6, -9.72486546525616168957e-01) (7, 4.03934610967100748979e+00) (8, 4.00872811120390437623e+00) (9, 3.28752586824380799158e-01) (10, 9.69432594635559041762e+00) (11, -2.02542987256507822647e-01) (3, 6.11380688314742393175e+00) (4, -3.44378914699873250882e+00) (5, -3.29112559184951125602e+00) (6, -3.49667667985877317349e+00) (7, 6.09026337919842220003e+00) (8, 3.46545697664241458824e+00) (9, 1.66308581121544030168e+00) (10, 1.25730183769566998819e+01) (11, 2.56866959092954927346e-01) 
